digraph Tree {
node [shape=box, style="filled, rounded", color="black", fontname=helvetica] ;
edge [fontname=helvetica] ;
0 [label="petal length (cm) <= 2.45\ngini = 0.66\nsamples = 100\nvalue = [57, 46, 47]\nclass = setosa", fillcolor="#fcf3ec"] ;
1 [label="gini = 0.0\nsamples = 37\nvalue = [57, 0, 0]\nclass = setosa", fillcolor="#e58139"] ;
0 -> 1 [labeldistance=2.5, labelangle=45, headlabel="True"] ;
2 [label="petal length (cm) <= 4.75\ngini = 0.5\nsamples = 63\nvalue = [0, 46, 47]\nclass = virginica", fillcolor="#fcfbfe"] ;
0 -> 2 [labeldistance=2.5, labelangle=-45, headlabel="False"] ;
3 [label="petal width (cm) <= 1.65\ngini = 0.05\nsamples = 29\nvalue = [0, 41, 1]\nclass = versicolor", fillcolor="#3ee684"] ;
2 -> 3 ;
4 [label="gini = 0.0\nsamples = 28\nvalue = [0, 41, 0]\nclass = versicolor", fillcolor="#39e581"] ;
3 -> 4 ;
5 [label="gini = 0.0\nsamples = 1\nvalue = [0, 0, 1]\nclass = virginica", fillcolor="#8139e5"] ;
3 -> 5 ;
6 [label="petal length (cm) <= 5.15\ngini = 0.18\nsamples = 34\nvalue = [0, 5, 46]\nclass = virginica", fillcolor="#8f4fe8"] ;
2 -> 6 ;
7 [label="sepal length (cm) <= 6.6\ngini = 0.33\nsamples = 14\nvalue = [0, 5, 19]\nclass = virginica", fillcolor="#a26dec"] ;
6 -> 7 ;
8 [label="petal width (cm) <= 1.7\ngini = 0.18\nsamples = 11\nvalue = [0, 2, 18]\nclass = virginica", fillcolor="#8f4fe8"] ;
7 -> 8 ;
9 [label="sepal length (cm) <= 6.15\ngini = 0.48\nsamples = 3\nvalue = [0, 2, 3]\nclass = virginica", fillcolor="#d5bdf6"] ;
8 -> 9 ;
10 [label="petal length (cm) <= 5.05\ngini = 0.44\nsamples = 2\nvalue = [0, 2, 1]\nclass = versicolor", fillcolor="#9cf2c0"] ;
9 -> 10 ;
11 [label="gini = 0.0\nsamples = 1\nvalue = [0, 0, 1]\nclass = virginica", fillcolor="#8139e5"] ;
10 -> 11 ;
12 [label="gini = 0.0\nsamples = 1\nvalue = [0, 2, 0]\nclass = versicolor", fillcolor="#39e581"] ;
10 -> 12 ;
13 [label="gini = 0.0\nsamples = 1\nvalue = [0, 0, 2]\nclass = virginica", fillcolor="#8139e5"] ;
9 -> 13 ;
14 [label="gini = 0.0\nsamples = 8\nvalue = [0, 0, 15]\nclass = virginica", fillcolor="#8139e5"] ;
8 -> 14 ;
15 [label="sepal width (cm) <= 3.05\ngini = 0.38\nsamples = 3\nvalue = [0, 3, 1]\nclass = versicolor", fillcolor="#7beeab"] ;
7 -> 15 ;
16 [label="gini = 0.0\nsamples = 2\nvalue = [0, 3, 0]\nclass = versicolor", fillcolor="#39e581"] ;
15 -> 16 ;
17 [label="gini = 0.0\nsamples = 1\nvalue = [0, 0, 1]\nclass = virginica", fillcolor="#8139e5"] ;
15 -> 17 ;
18 [label="gini = 0.0\nsamples = 20\nvalue = [0, 0, 27]\nclass = virginica", fillcolor="#8139e5"] ;
6 -> 18 ;
}